encog,BasicNetwork,java,3.4.0,1,1513077613824
[BASIC]
[BASIC:PARAMS]
[BASIC:NETWORK]
beginTraining=0
connectionLimit=0
contextTargetOffset=0,0,0,0,0,0,0,0,0,0,0,0,0,0,0,0,0,0,0,0,0,0,0,0,0,0,0,0,0,0,0,0,0,0,0,0,0,0,0,0,0,0
contextTargetSize=0,0,0,0,0,0,0,0,0,0,0,0,0,0,0,0,0,0,0,0,0,0,0,0,0,0,0,0,0,0,0,0,0,0,0,0,0,0,0,0,0,0
endTraining=41
hasContext=f
inputCount=9
layerCounts=9,10,10,10,10,10,10,10,10,10,10,10,10,10,10,10,10,10,10,10,10,10,10,10,10,10,10,10,10,10,10,10,10,10,10,10,10,10,10,10,10,10
layerFeedCounts=9,9,9,9,9,9,9,9,9,9,9,9,9,9,9,9,9,9,9,9,9,9,9,9,9,9,9,9,9,9,9,9,9,9,9,9,9,9,9,9,9,9
layerContextCount=0,0,0,0,0,0,0,0,0,0,0,0,0,0,0,0,0,0,0,0,0,0,0,0,0,0,0,0,0,0,0,0,0,0,0,0,0,0,0,0,0,0
layerIndex=0,9,19,29,39,49,59,69,79,89,99,109,119,129,139,149,159,169,179,189,199,209,219,229,239,249,259,269,279,289,299,309,319,329,339,349,359,369,379,389,399,409
output=0,0,0,0,0,0,0,0,0,1,1,1,1,1,1,1,1,1,1,1,1,1,1,1,1,1,1,1,1,1,1,1,1,1,1,1,1,1,1,1,1,1,1,1,1,1,1,1,1,1,1,1,1,1,1,1,1,1,1,1,1,1,1,1,1,1,1,1,1,1,1,1,1,1,1,1,1,1,1,1,1,1,1,1,1,1,1,1,1,1,1,1,1,1,1,1,1,1,1,1,1,1,1,1,1,1,1,1,1,1,1,1,1,1,1,1,1,1,1,1,1,1,1,1,1,1,1,1,1,1,1,1,1,1,1,1,1,1,1,1,1,1,1,1,1,1,1,1,1,1,1,1,1,1,1,1,1,1,1,1,1,1,1,1,1,1,1,1,1,1,1,1,1,1,1,1,1,1,1,1,1,1,1,1,1,1,1,1,1,1,1,1,1,1,1,1,1,1,1,1,1,1,1,1,1,1,1,1,1,1,1,1,1,1,1,1,1,1,1,1,1,1,1,1,1,1,1,1,1,1,1,1,1,1,1,1,1,1,1,1,1,1,1,1,1,1,1,1,1,1,1,1,1,1,1,1,1,1,1,1,1,1,1,1,1,1,1,1,1,1,1,1,1,1,1,1,1,1,1,1,1,1,1,1,1,1,1,1,1,1,1,1,1,1,1,1,1,1,1,1,1,1,1,1,1,1,1,1,1,1,1,1,1,1,1,1,1,1,1,1,1,1,1,1,1,1,1,1,1,1,1,1,1,1,1,1,1,1,1,1,1,1,1,1,1,1,1,1,1,1,1,1,1,1,1,1,1,1,1,1,1,1,1,1,1,1,1,1,1,1,1,1,1,1,1,1,1,1,1,1,1,1,1,1,1,1,1,1,1,1,1,1,1,1,1,1,1,1,1,1,1,1,1,1,0,0,1,0,1,0,2,1,1,1,2,2,1,0,1
outputCount=9
weightIndex=0,90,180,270,360,450,540,630,720,810,900,990,1080,1170,1260,1350,1440,1530,1620,1710,1800,1890,1980,2070,2160,2250,2340,2430,2520,2610,2700,2790,2880,2970,3060,3150,3240,3330,3420,3510,3600,3690
weights=##0
##double#3690
   -3.9441107472,-4.3016039485,-4.3615949104,-3.8138320009,-2.8371972098,-3.3410729403,-2.728561072,-2.9323895898,-2.8564721162,-2.6771487712,-3.2524889472,-3.9571242583,-2.5548271929,-2.9815860031,-4.1405698165,-3.2253481132,-3.8420300645,-2.8072416765,-4.295047663,-2.4133997863,-2.5270634752,-3.7323119371,-4.2024785339,-2.7825961453,-4.0145622767,-2.665916895,-3.2322146798,-3.6163344254,-3.7248217025,-3.3406703502,-4.1085214034,-3.0955281376,-3.3934861006,-3.1090130431,-2.4663982125,-3.7947337452,-2.516288333,-4.2493014062,-2.8717899007,-3.9374149606,-3.284785518,-4.1478289114,-3.5772887755,-3.365802484,-4.3307786733,-3.7647966781,-3.8985759514,-2.7401334542,-2.8563681852,-2.8825113765,-4.1652927098,-2.2388292713,-2.4637767345,-3.8932596977,-4.0235942189,-3.6230543899,-2.2272422301,-3.2081143199,-3.59087527,-3.8092871441,-3.5361525638,-2.7446489041,-3.1239540105,-3.8057700159,-2.5289784604,-2.4871483741,-4.1410728515,-3.0051678444,-4.2227167643,-4.0847472298,-3.6467836641,-3.9031040692,-3.1324172225,-4.0862701528,-2.7394067828,-3.1069437937,-3.3529653212,-2.8236604411,-3.7641697159,-3.0169421102,-3.6495694419,-3.4526748525,-3.9217026926,-2.8829539298,-2.9834408838,-3.0850650668,-4.4262235725,-3.7257524252,-3.2572094967,-2.6050937086,20.3568212364,20.4298421688,20.9415353696,20.1534115636,20.606797062,20.980337187,20.9117955958,20.5840603803,19.6824935318,20.8757236887,20.3042164071,20.3053693163,19.012461498,19.740623359,19.1023847655,19.2224885364,20.7343823305,19.3008554303,20.4137859019,19.6036614253,19.4886513052,20.0564412886,20.9877862399,20.9780044316,20.1523248308,19.8393346798,19.6724595448,20.6504192452,20.2063361349,19.5366199609,19.4616537743,20.1434519504,19.9845121422,19.4744544954,19.589378766,20.0469221985,19.4867221158,19.7000565185,19.8880409152,18.4626272364,19.0340160547,19.2421157368,20.7386358454,19.3702634998,20.5663658962,20.8720688139,19.4004448512,20.589782735,19.2402467477,19.6694696609,19.5837057086,19.0887890031,20.1493354611,19.7352602087,19.6226449541,19.5232956406,20.3326850624,18.7627774689,19.3790567791,19.7737560584,19.8888739756,19.8576385978,19.2180327472,19.552100526,20.9209323374,20.8970487612,19.0820541939,20.7757743014,20.4686658242,19.7815779196,19.756213373,20.0402592111,19.4824322167,18.6637594732,19.3646238409,18.7155319994,19.804714987,19.5705705655,20.1431693208,19.9346998741,19.4406560775,19.6082758847,18.8467646755,20.7923024591,19.5125152135,19.3495248817,19.9444495142,19.1054119669,19.6648322245,20.3118809584,20.1120544328,20.3179064925,19.9291274945,19.7558810495,19.7713092781,18.6223831004,20.0513552951,19.6322038029,19.9727970239,18.7951084845,20.4999148925,19.4626487182,20.5964621152,19.4974202462,20.5827720315,19.4535747116,18.8853260279,19.6067028194,20.3258735056,18.994845459,19.8695832561,18.8096694851,19.5855835598,20.0595990362,19.823300474,19.5107987325,20.5796967598,19.8873565545,20.0181226648,19.6058529766,20.0576800235,19.6776186556,20.450768404,19.6446127068,21.0920696893,21.175831195,20.9751084525,20.5786155502,19.3476949887,19.4375230983,19.9248071182,20.7988753692,20.3473985598,20.8592257003,20.5513080477,19.3490166516,20.1555164914,20.3951586872,19.4121169804,19.941120022,20.2595870806,19.5812468765,18.745659598,18.6650020614,20.4269365201,20.3917241047,19.5116206373,18.9651686286,18.7027365777,19.6561045321,19.4750130814,20.3110950085,19.2939140195,19.1306995562,20.1550218465,19.9881053602,20.0094101104,20.7785464043,19.2706731107,20.4522258815,19.4547054779,19.4159140554,19.7564831812,19.8101162147,20.5900191998,19.9694979508,20.0896820765,20.7833430423,19.2365626753,20.675935093,20.943979788,20.7523306923,19.710458001,20.6227784991,19.6550232711,20.2632072246,19.5447492243,19.2502923317,21.0639330904,20.43147373,19.6956952851,19.9810306834,20.2122769935,19.5556083236,18.9020719966,20.024354824,19.8746581926,19.3376585616,19.9678618962,20.6788313219,19.5710208789,20.8085780722,20.1204498045,19.3261681667,20.6849164822,19.8901538384,20.4844650169,20.5209168419,19.0449292346,19.5368681052,19.8784507527,20.1367654914,18.583524935,19.092402829,20.0774699946,20.1750937584,19.0278042978,19.7248813237,18.9829163486,19.5804019475,18.7631438075,19.7469582975,18.4144103895,18.8841181941,18.3092178461,18.8072018711,18.6510039841,18.6024774039,19.6125717238,18.7995509692,20.2590443108,19.9198053607,19.3123999149,19.2740535817,19.2520941083,19.9360802648,20.4318497538,19.3699952493,19.9517454612,19.0337720007,19.3354878631,19.6665406768,20.6148519757,19.2114966045,19.0323130665,19.3468748903,19.3362164755,19.4858232,20.4457861879,19.3251697138,19.2228164634,19.3069501633,19.0161688422,20.2404544943,18.7935624658,19.1341689841,19.1474194249,19.6053606224,19.6813146794,18.4248105174,19.0046157197,20.5488305434,20.2190202044,20.5881905981,19.960716378,20.2916405972,18.8627135761,19.843562586,20.0308291654,19.0476157545,19.8417960669,19.1311347987,20.4343991897,19.2367858601,20.0758322563,18.9015728121,20.126792122,20.0012619281,18.6305368191,19.5187844649,19.2474860662,18.5449820268,19.7356795639,19.5970949094,20.1145542748,19.3771079806,19.8197193083,19.7335117968,19.9830485579,20.1916108034,20.9226212685,19.004599098,19.9779319563,19.3411405681,20.8087278042,19.8964908564,20.3261478197,20.1033296936,20.3902604542,19.3476172379,19.0678584634,19.0551530325,20.3834984828,19.3920296256,19.4662619966,19.7235542642,19.2784424924,18.4132976554,18.939226412,18.4835157784,18.5944202539,18.4491248302,19.4888886082,18.0228328501,18.9030448306,18.1084679801,17.9158346332,18.9359730169,18.744272405,19.6541150641,19.2160620244,18.782372375,18.8741949322,17.7830513857,19.4368679115,18.1810688562,18.4856056211,18.0149637642,18.0619063905,18.8049128781,20.1872561817,19.768264928,20.5119804052,20.9408439431,20.1669786539,19.579366033,20.8803804082,20.2183037812,20.5981166844,19.8178838154,18.8038202191,18.9400698596,18.8374203258,20.1846169408,20.1033119752,19.4773849854,20.4977692861,19.8048068461,18.8910436433,19.9128524851,18.080657451,18.6156153767,18.9783919382,18.0350685942,19.6838360525,18.0381451669,19.2290524059,19.9643466584,19.2845589319,19.4574310184,19.1543597854,19.0633377772,19.8049688415,20.6077442697,20.1728182029,19.0822762128,19.9072577702,19.5973751595,19.8226146771,19.9966311023,18.5144028492,18.1693249265,18.4557198057,19.2040017773,18.2856228951,18.7288329644,17.8241706363,19.6156682864,19.0755882247,19.4064838677,17.9878737712,17.5277416057,16.9003304592,17.8173016116,18.7450185906,18.3656585789,17.4958292493,18.0825260804,16.8575444112,17.5515743459,19.9919427649,19.7499779228,19.346961044,19.0521034681,19.7416644324,19.63434219,19.2055923075,19.25903412,19.2300650752,20.2481336975,20.2475973091,19.2979350073,20.2831382583,19.6739510482,20.0760518193,19.35008373,19.5431347651,19.4796249526,19.3093059607,19.8132650096,19.1578084289,19.9574209111,19.2745361957,18.9330652148,19.0946994349,20.2003053668,19.6638471506,18.6279366607,18.9628043725,20.5980430578,18.6941259484,19.3227861269,18.7145772811,18.6135971291,17.6615866546,18.3075620842,17.6908660442,19.4464346179,19.3942035309,18.4000612997,20.4573563359,19.1846559072,20.5288947632,19.9215383725,19.9023342776,19.057672128,19.2799855327,19.6206875193,20.3450448464,19.6589524151,18.5019345987,20.0891680584,19.1661161908,20.0262748022,18.4087344036,19.6653395364,20.2603281428,19.7818346677,19.875968553,18.9344709445,20.8866847997,20.2260575305,20.2078797531,20.3952688556,19.7885100802,19.2765547247,20.3880725926,19.744996454,20.0055284095,20.2481481415,19.7343818342,19.3461359751,20.7447179001,19.4613248823,20.809072105,19.2727255806,19.166267819,20.7882975044,20.030788387,20.4845377332,19.1700064011,19.7137790414,19.4798696971,18.6992577876,18.9836735207,19.6883000974,19.3274756569,19.2705239675,18.8724217666,18.6092724627,20.5525834875,19.7116196353,20.3660824625,20.2415450604,20.0296263952,20.0396038678,21.0330198895,20.2065598999,19.4964220649,21.095453928,19.1795317022,19.4946401388,17.9875804154,17.891847522,17.6002684301,17.978596391,19.3972374952,19.2504783399,18.2708316632,17.7186332299,18.0421912935,18.9171281121,19.3908432667,17.8905830463,19.6643491759,19.0382628033,18.6868388976,19.7995494706,18.4255924999,19.1826165776,19.7805109459,19.6098215343,19.0748836227,18.1133560327,18.6621475541,18.200416437,19.8259096133,18.5442910543,19.9665904505,18.4629328531,18.7124826208,19.819095061,18.9769919163,19.379911493,20.0188404323,19.2880884608,19.8247680189,18.271371901,19.7160954725,18.9813664468,18.2603238124,18.949265734,18.192100561,17.7385501542,17.7462781389,18.1727599587,18.6445842346,18.1897274415,18.8962198377,19.0706475086,19.4149132251,19.8238653232,20.5412857586,20.39340205,20.3116628437,20.4433448616,19.889842642,18.7563256304,19.2792917352,18.8361775761,19.2704236175,19.0737337966,20.4375585196,19.6045586891,18.9780640546,18.6861446181,18.9458309022,20.0574643832,18.6006224981,20.1134614482,19.6552625749,20.0507579072,19.4009366263,19.6753119503,19.5447301619,18.9921430794,19.4324415521,18.8038492194,19.1433659621,18.9417942329,20.3935520008,19.40601189,20.6145207686,20.9907951394,19.3103883271,20.1490738542,20.8924704795,20.776881942,20.6404464714,20.7567852926,18.5125732852,17.7811090517,17.8082537238,17.6991983747,18.1033644631,18.372030141,17.8695028065,17.2384281204,17.276125094,18.98194105,19.6035129362,20.1947592265,20.3665754247,20.0261051325,19.1785321308,19.6203139015,19.1931822027,18.7315176709,20.3401015986,20.3082360574,18.9032235912,19.874189205,19.7911016798,19.7653232713,19.1258168698,20.620731241,18.826279306,19.4417442865,20.1378944736,20.4863852808,19.9736250822,18.6441111777,19.7679257598,19.934377568,19.0669645686,19.3290239766,18.7520167954,19.5688399684,20.3776378487,18.5281629571,17.8582910755,19.3800037644,18.8695438405,17.6488303173,18.6365870535,17.8242199902,17.7151090333,18.0238674562,17.619646547,18.5738207466,20.2575328374,20.2555743924,18.6833823306,19.3103448904,20.2070268744,18.9168113011,19.5258003712,20.1988113402,18.6354394907,18.5515366893,19.827795525,18.8232034515,19.515561027,18.8130273892,18.6282918404,19.4499242072,19.8647689164,18.8868576018,18.989969991,19.5808011353,19.6702099009,18.9106059963,20.1665978697,18.2488181961,19.8768101643,18.4309905866,18.4381917785,19.1146244244,19.5061407214,19.4064596973,19.2851035999,19.8307537712,20.1615954391,19.8962310526,19.9933803639,19.3531525617,20.3127867038,21.0964162247,21.1830158612,19.7431230848,18.9129381776,20.0509710932,20.1822098045,19.067090215,18.6687036795,18.3271686299,18.6769961628,18.9380460506,18.466407669,19.984829693,17.8535861607,18.3113982717,18.5799698397,17.9951704757,19.0259156721,18.1184259267,19.1854521596,18.4324921963,18.2703972494,18.8979716083,19.4325822607,20.1943949099,19.1984123924,19.9056641267,19.5384309172,19.7953705887,19.2388461744,18.8837482641,18.4671008641,19.1214338551,17.918837206,18.1187358339,17.9868000005,17.9298740735,19.4104957107,17.977504236,18.3549259143,19.2186641724,19.4301663306,18.648547899,18.7179519944,19.4759331954,19.1607297594,19.7047184616,19.209537061,19.7655638129,19.6731472431,19.203237834,19.7413548376,19.3135561306,19.1174257089,20.1901831854,19.0691058055,19.3603207172,18.3216504517,18.4909672428,19.168631098,19.6883775543,19.8980208023,18.6547618192,18.0276477618,19.7102355457,19.3076452348,18.512379663,18.0195313057,19.9621066736,19.4153091033,19.3619481277,19.5787461963,19.6109851957,20.1073536859,19.7040711354,20.3652236129,20.5719220317,20.101190801,19.3958647343,18.8286668107,18.8395726208,18.7930038635,19.9154086701,19.8387895988,18.624078736,19.9419914682,18.7554178922,18.9440472623,18.3466441841,19.7086918024,18.6471171884,18.7082474275,18.3132094161,18.6548166149,18.7796571284,18.556462859,19.7611628827,19.4757930805,18.6725118424,18.3169696066,18.8004989532,18.3280237343,19.5488194712,19.0975999543,18.6227126282,17.7927580164,19.3728284648,19.0584535462,18.0555486765,18.4619939563,17.6472991833,18.4368766476,19.0686249441,17.3170391892,18.4578495565,18.9349735022,17.5392658414,18.3094807561,18.7580613462,19.0175991265,18.3648821922,17.6581389562,18.4237634251,19.2879226069,18.7449674383,18.2230080832,19.0212057229,19.4382770158,19.0613556972,18.9453998334,18.7409021822,20.0391669878,18.3851656475,20.6988902838,19.3859843869,20.1351959422,19.3833221083,19.0733922004,19.2281599749,19.2314377337,19.332503757,19.3024767903,19.2064594883,20.3876157487,20.3103088235,19.2324239305,19.6619664278,19.9327379503,18.9526297204,19.1890817838,20.7881347534,18.9372460342,19.3898707295,18.8266117748,20.1059550977,19.3730070619,19.897503863,18.7500345694,19.1871659043,19.851032403,19.1168012018,19.6594957223,18.8715355698,18.9385861609,20.0151212335,19.5542998879,19.144285504,19.9009635278,18.841395073,20.0186157499,19.1234988457,18.363673055,19.0540698118,19.2142925452,19.6228922921,19.6970024002,19.346084567,19.1457908577,20.4060380001,18.9626197472,19.7227017705,19.8738516974,19.6561346547,18.1744429989,18.4796768133,18.9140831234,18.2398951201,19.8605054191,18.8537360005,18.3965767849,19.8368878032,19.5870974514,18.8488462488,19.7181193651,19.2008079051,19.5539551377,19.2296044853,19.6535026201,18.6105797165,18.4104172234,18.5659583339,18.7610711646,19.092039338,19.197074572,18.2801491628,18.4203316823,18.1325209948,18.5632474077,17.4723614962,17.4825642911,18.5044617489,18.516307106,18.5760324693,18.0171498159,18.292445434,19.1486272552,19.3789311041,19.3619071596,19.1412416063,17.8724358193,18.3729457122,18.5209208167,19.0682876411,19.7661140979,18.6087562336,19.160663092,19.9098058647,19.9130731295,18.2496008606,18.7863527216,19.4724223953,18.2530163007,18.5914570609,17.9987113892,18.2654371526,18.4566114807,18.4820113528,19.150967949,19.7822111958,19.2943845257,19.6549455216,19.5188044331,18.725920246,18.7021027393,17.924622314,17.40249055,18.4901089673,18.1827361017,18.7823628481,18.48791305,19.1321445861,19.1595437917,18.1531292635,20.5971395808,19.9753229697,19.0316628222,20.3273763728,20.3197696583,19.880493977,19.825391635,19.5045730533,20.7728799856,20.1144987164,18.7330511907,19.0800820051,18.931181767,19.1805926241,19.3121511531,19.9555502818,18.5028607059,19.5549145685,19.2359390078,19.7144657139,19.5798166621,19.0195581444,18.4476550822,18.4446805816,18.4098934235,18.3662662059,18.2591711985,19.4223318309,18.5586279892,19.0130757756,19.3720872521,18.7178478451,19.2957554579,19.6763224726,19.5584141049,18.0998273366,19.4261153124,18.5449039018,18.9126603019,19.169936625,19.4241221503,18.6619620899,18.0379349238,18.3831349155,17.9534411802,18.7806022771,17.9443913508,18.1929053982,18.6990653899,19.2763679979,19.4988470887,18.211930302,18.6236193463,18.5901158839,17.9856253083,19.2615384856,17.8729736674,17.6148937869,19.2681894504,17.6296135373,19.7742738167,19.8252489008,18.6577217889,20.1817098669,18.8321711185,19.4117869898,19.327832368,19.4158868003,20.4007347839,20.4209320994,18.9552626009,19.5451166775,19.7431608693,18.7733556207,19.4545958332,19.4209469521,20.0823949958,19.1450297725,18.4761568753,18.7086266116,18.2985279429,18.9476438018,18.8395055042,19.2444233528,18.7477175485,19.1275258952,18.4155269004,19.7099214398,18.0343979121,18.233451126,19.6582952518,19.2319130828,19.9269167054,18.939694003,19.2115825178,18.4695755647,19.8394273028,20.1057770457,19.5279960373,19.0732236934,18.5620101172,17.621461204,19.1633637413,18.2966248007,19.0386207082,18.3832338125,18.0250484443,18.053493508,18.4803470035,17.4675418735,18.8527568768,19.2671812944,18.6214321146,18.4855487313,18.6999909805,18.9385541496,18.7869282254,18.7314166469,19.7639164256,18.0628357,18.8404095575,19.3822283991,19.7344724545,18.4141394087,19.5511827375,18.2692706524,18.950928584,19.0106941243,19.0195310059,19.3991212888,18.2208966407,18.8154478859,19.4369098176,19.5350737768,17.9004844209,19.1182995747,19.0634157637,19.3068588265,19.6909873303,18.9575060545,18.4916174774,18.9331823799,18.9775954774,17.6968963095,17.9248141355,19.4225628575,18.7402844629,17.7215755393,19.2230722474,19.4164146831,18.7827767937,19.0681735559,17.6710178933,18.5713371064,19.370342831,18.5864762682,18.2182302048,18.4033856255,17.5454806857,17.6966277486,19.2913543012,18.4867412118,18.4263643023,17.9691412404,19.0430382665,18.1122403142,18.6167356621,19.2388314007,19.6417453727,18.1196001841,18.1726044606,18.2772961373,18.5193994628,19.2664955467,18.4743704664,17.6369028624,18.3098438631,19.4314587945,18.174105812,17.8048314744,19.4426371972,18.4944930937,19.6037131763,17.8608453842,18.0849444211,18.0087054509,17.8757969515,17.9293244004,18.0253972452,17.9632052928,19.3494400101,18.2202739755,18.2298215212,19.1866371159,18.9829473375,19.6617532526,19.1164610895,18.7390755798,18.3678820978,19.6429800187,17.8952753217,18.286593531,19.5708350126,18.2974740667,18.7518766218,18.1613637406,19.0019025675,19.5936870055,18.5254225287,17.8911067812,19.1580710389,18.9790706762,17.6471355995,18.2145987421,18.0957904202,19.2867490709,18.1462446846,18.6792472469,19.4173609777,18.0448952744,17.9144370857,18.6802532492,18.4412887006,18.9839428044,18.6063685709,18.5720183118,19.0710828019,17.6166383049,18.25210083,19.1031974206,18.8111940263,17.4352465543,18.2175468641,17.6863875991,19.1644434113,18.5216799439,17.6833601433,17.5205903633,17.756094753,18.4738406262,18.5750369071,19.81559316,20.3450708488,19.301172073,19.8772848456,18.4956595932,19.9399109714,19.9955604311,20.0727294331,20.3207514783,18.941089483,19.3035082998,18.7669573135,18.563177103,19.2227812897,18.9730426549,18.7962464413,18.7216484102,19.2860792043,18.0384139796,18.9589266185,19.2448215328,19.2345782148,18.1464396147,17.6875264777,18.4040267276,18.1274011892,19.1448217435,18.7138812185,18.2053921413,18.7940422754,18.4347755228,19.3358170126,18.3700591309,18.6243917143,18.3004971829,18.7672692008,18.7074727553,18.9892284498,18.4614831691,18.1269468884,19.7749078803,18.4217781157,18.455121899,19.0493820534,18.4889245334,18.8143935432,18.0260575219,19.0837641089,19.7856492177,18.3847301097,17.4605990157,17.8221302029,17.1627325565,17.6867998448,17.4798492361,17.1293891604,17.5317997647,17.4106706908,18.0132991246,18.6311801409,18.3488571405,18.8935285613,19.0122004256,17.8089882704,17.7731432725,18.366077416,18.0890607378,18.3233142981,18.5306792307,18.7126168549,17.9502590828,18.5626992157,17.4280131342,17.6539244966,18.3833868135,18.7857254161,17.3741587253,17.8336859919,19.0853478677,17.9805501148,17.5309441765,18.445727855,17.5329146194,19.2634982531,18.2532837587,17.7421847811,18.8418246929,18.4365244607,19.2843900957,17.289012622,18.8731608586,17.9723882283,18.8918757446,18.3210064752,17.2453020445,18.0858486794,17.7794140306,18.924019631,17.7139461315,18.9723410434,18.8512194239,17.8247129671,18.7665568889,18.6017227289,18.1235344466,17.751544975,19.0540834393,18.626235818,18.5670116919,17.3538272269,17.1440179551,18.5672126207,17.0570376732,18.8414630466,18.5919745599,17.1796592191,17.2948280887,18.7302033342,17.8247275345,18.414452263,18.139743026,18.0270755368,19.0126117686,18.9286076044,18.4859184839,19.5530804702,19.5113671666,19.1375694264,18.9832609059,18.6314505757,17.4278990873,17.4553092459,18.1310151869,18.7243952265,18.3118054624,19.0757972074,17.2181620596,18.6181164813,17.588161047,17.2998961455,18.1973292124,18.3520440287,17.5573254331,18.5752410749,18.0559234354,17.7280286662,17.9547383122,18.9945941423,18.4138521635,17.8114089428,18.4763453607,17.9642700999,17.571037645,17.1308547673,17.0699750592,18.5213199553,17.5622537863,17.1949028248,18.2470697881,18.2487902944,17.5044608516,18.4926659351,17.4550955938,16.9615646541,18.4410884039,18.5986411769,16.9881094863,16.6473841975,17.4777189835,18.4734322723,18.5016604622,18.7815908095,17.9856485702,17.9502489281,17.0063953053,18.0125439238,18.2528439145,18.5695510042,17.8780099897,18.8398163945,18.3166906018,18.3084697236,18.7256602718,17.586735288,18.8277056203,17.7954196117,17.5759603999,17.4839024976,18.8965363212,17.6159867241,18.6897523191,18.3248819964,18.8751940091,18.2392339991,17.6959574384,17.8968690342,17.836954211,18.5481522402,18.8680248318,18.1032924242,18.2309176152,18.2416783992,18.2074796051,17.4696365237,18.6734593322,18.4126549933,18.1260676083,17.0761411624,17.6152809721,17.7996807325,17.653060325,18.0736429706,17.321249217,17.9359671943,16.2830290071,17.129030037,17.0155700844,17.4190021225,17.8269309057,17.250921756,17.3360348415,17.5427316258,17.7381769357,17.4477614497,17.5886789767,17.4404146198,17.6024388961,17.7436132084,17.555018592,17.9036942035,19.1848053083,18.8540441506,17.6252190195,18.2138120613,18.4695533486,19.111179254,18.7501515524,18.0488266536,19.04790344,19.0088136946,17.3718799101,17.7878192682,18.2787348853,19.1638496407,18.5715060098,18.910359078,18.7097558489,18.8422578144,17.7111080574,17.3098325087,16.084760814,16.6053324427,17.8767085662,16.4467957315,17.4780399201,17.4138408905,17.8974944689,17.6006373687,17.6410947771,17.5907786462,18.6728369499,17.9680286225,17.6053991557,18.2308498648,19.0928722673,19.0385600122,18.5964232905,17.6362976188,19.3590871367,18.5991478222,18.6644040182,17.5004346503,18.3067792369,18.415876768,18.018534613,18.5510645108,18.1522179103,18.6045126878,18.0701500086,19.5121219317,17.8524604305,19.2072374519,18.7782681659,17.779607738,18.6855774436,18.3791534006,19.1288244313,19.3049495301,19.0780361366,16.4047323084,17.4098953089,17.5299655437,18.0191870297,17.4698733876,18.2352135571,18.3050211332,18.2777286142,18.0461960516,16.7886151786,16.9634802067,17.9951756843,17.3958004954,16.203780004,16.6562110461,17.8933191485,16.5041107788,17.2691473393,17.8669991588,16.5270270014,18.4606066005,17.4814629624,16.9082138061,17.2902274743,16.9883454907,18.4854628629,17.4217753628,16.8298855289,18.2473007366,18.1951719657,18.3444123136,18.2208754736,18.4197078212,17.0006455022,17.7129072391,17.6431452666,17.3075446731,17.561198352,17.2743552362,17.4798668589,18.2475434913,17.9901121306,18.0623404691,18.3803484698,18.3447701172,18.1953332424,18.0496699963,18.4741620361,18.45023495,18.5010910746,18.2368020516,17.1847385974,18.3792481911,17.9490282838,18.1280876818,16.7886619455,16.6252286155,16.6626238161,18.4395245271,16.6225786965,18.4886053667,17.8119606976,17.1025117096,17.3661844989,18.2025286049,18.4784366423,16.780541774,17.2684286971,17.6350789783,17.2270110225,17.1504367243,18.3775580372,17.8498798751,18.6159256272,16.8328169911,16.8848793374,18.5590385351,17.9488981268,16.9321196548,17.8763912967,17.6541567302,16.7198690508,18.5307706996,17.9982301646,18.3359781663,16.7566363187,18.1290019111,17.3839414715,16.9122660508,17.7164064694,16.4893444642,16.6848276935,17.2093141419,17.3902197876,17.2502885372,17.8892261498,17.2040864332,17.3113547699,16.6424620659,17.0089350681,17.737783029,16.4929895635,16.8272613379,16.4148939653,16.3628966392,16.963718387,16.2532682361,17.4525416331,17.2432215284,17.1791784865,17.5198284414,17.5865196387,16.2422143269,16.639621615,16.1313594291,17.213907502,17.626838672,16.0808472285,17.2704172472,16.5632560828,18.2070607513,17.2427526399,18.0696815067,18.2364878661,18.8716279065,18.0316450382,18.7857998952,17.7304444716,18.2440788318,18.5303911989,16.3967311222,18.0229350772,18.0028017199,16.3805106513,16.7650253391,16.37991373,16.2577416203,17.5256901896,17.8810115689,18.1937652902,16.6247179064,18.0194857503,16.9046494734,16.3664604681,16.5088791715,17.5130444587,16.7325774663,18.1471873766,16.7802412441,17.8295559699,17.0166206734,17.1040804902,16.40425064,17.7788634891,17.3930494452,17.136069302,16.8345638837,17.774996972,17.8851563209,16.6330549029,16.5184551644,17.632382585,16.3581724219,16.6783397084,16.7379983557,17.7627911218,17.3264600232,16.8108550541,16.2509959027,17.7534606657,16.0248679923,16.9716030484,17.9237490637,17.767072222,17.6219522364,16.3469081547,17.1496466355,17.0181201258,17.5704820619,16.8200684597,16.7252908447,16.1282851608,14.9190487665,15.5421037551,15.3631927352,15.0232292473,16.8046859258,15.8409639989,15.1080080963,16.0625585314,15.0057781425,15.9316038278,16.8345009721,16.3948444486,15.4032300465,16.6569959003,16.8625193398,16.3859099741,15.9375452952,15.2364573955,16.2827977213,17.0305463894,16.6329896299,16.8421650899,15.9371121789,16.0229292208,16.8346987478,17.1410910138,15.6123113525,16.8083739822,14.964100667,15.6656262386,15.2977492467,15.9588809498,15.4884220423,15.8226683352,15.3268850744,15.6992651561,16.0082058111,16.4824921336,16.3916135797,17.9325448392,17.0934119416,17.7260561425,17.5974786952,16.7151652401,16.9979116235,18.1730580941,17.4370329197,18.1450781904,15.6089042605,15.5595609128,16.5619332917,16.866551176,16.3775233374,16.2532171602,16.5560993603,16.5670420273,16.8989719167,16.4663230182,17.1345075672,15.9770528056,16.5704662841,15.5133806137,15.6306452077,15.6258438704,17.1902193007,17.2720427262,17.0892784788,16.4394816539,16.7589026359,16.8689092627,17.0172306458,16.0509473916,15.4944454583,15.410906924,16.9458409927,17.3924856943,15.4182250118,17.1022727033,16.8676710527,17.1971215642,17.6482380004,17.6644783631,15.8598749398,16.7667576231,15.8959091897,17.3780782595,17.277265308,16.3935913845,15.3182990716,14.2935188696,14.4074428372,14.6762476992,15.1975317213,14.1437367955,13.65313023,13.9758961392,14.3189540402,13.8095046284,14.8466454214,16.0950363989,16.557313236,15.8968190424,15.8469545614,15.9706565469,16.3961863106,16.3586710145,14.8843758528,15.9417030318,16.432758585,17.0511042534,17.8269808574,16.325189748,17.605907028,17.8314133467,17.9883823017,16.522607282,18.094227661,16.3575792382,15.6058622624,15.9808726866,14.9288328642,15.4185741286,14.8784261688,15.1248816117,15.9895675358,15.353355389,15.70979521,15.1186853772,15.1406188547,15.2231921758,14.169248068,15.4397430221,15.4229089684,15.5373224191,14.8057685927,14.5886846683,15.0526125096,15.735250381,15.0884934156,15.5331822101,14.5883215443,14.6304675204,14.1307679364,14.6789386597,15.0932872499,14.8228362264,15.1488000956,14.292796466,14.7262410925,15.1115647224,14.1005230846,15.6345564152,15.1214634448,15.1718300561,15.9134334896,14.8811610491,14.6846818941,15.1224126469,16.1236966107,16.4855484478,16.5931779046,16.3584419789,15.9391310591,16.2494494008,16.4595410322,15.4710807193,15.7347411881,15.4411419933,16.4923226779,17.1820409358,17.0840232949,16.1226018,17.1145054598,16.2733253871,17.0801894419,15.5903550673,15.2999265034,15.2893759214,14.9418286107,13.7874651117,14.0972324235,14.7623995806,14.961308339,15.1392889799,14.7062737639,13.6618904599,14.6730211756,13.7901273264,15.2019154724,16.4127090004,16.810551028,15.5513342375,15.7937271837,15.8197873906,16.1059132667,16.4253358196,16.4874118969,15.399501553,16.021497611,16.9415807028,15.552759717,15.159398976,16.4041136954,16.6540109756,15.1518581499,15.7530645675,16.4228910746,16.5040106556,15.2691471733,14.214580542,15.1507497237,14.5369369284,15.6777125623,15.3640417033,14.4414063597,14.691128393,15.2871449348,15.4527401564,15.2912340269,13.9301031161,15.0841568181,14.3932301917,14.7945645631,14.7366803479,14.8395493017,14.008451199,14.5783519942,14.7776696828,15.6798968132,15.0128185599,15.9226593514,15.5672677938,16.8427106636,16.7431443229,16.7460100216,16.0180975848,16.9034939886,15.5252466801,16.0200883717,17.1088064338,16.7951025696,16.9679139293,17.3293892831,15.840489657,15.9691662934,16.3406017516,16.0307564531,17.0692584654,14.8658154184,13.5884757024,13.746827615,14.26104997,15.0911160738,14.7386642382,14.5349051863,14.2451864903,14.6242899228,15.0538091235,15.3474357385,15.1873607852,14.2419224094,15.5246258493,14.1284293579,15.2791735158,14.5687164879,14.4866009404,14.6660140336,14.0148212629,15.7435688799,16.3785422099,16.0586188591,15.984552475,15.9676838124,14.6791665826,15.2401688082,15.0911956308,15.3747408987,15.4968473139,16.10170513,17.0729405021,16.393703206,16.1309855915,16.8748516166,16.6091027807,16.3070981816,17.1714039172,17.3619251813,17.3960584265,16.2098278183,15.541708308,15.0907381499,15.5981044417,15.5391755762,15.400151546,14.4599633482,16.1788304814,15.2633614813,15.1217272025,14.7247172201,16.3355230512,14.4364579912,14.06932544,15.1985861671,16.2429420728,15.4799232433,16.1415106954,14.821961389,14.2218255254,15.6545143978,15.8780031805,16.5437121717,16.1523521133,15.9412518348,15.8827179001,16.1097221828,15.8802078902,15.0928405208,16.4366663038,15.9360911796,15.8147329589,16.5704379145,16.7179930555,15.5087352079,15.6838930837,15.7508741907,15.8095911101,15.387783828,15.8264189168,14.339408677,15.7045617143,14.9073849157,15.3575683567,15.4185428079,16.1837848176,15.6047319806,14.6182805768
   15.7949719943,14.5096919084,14.9338775461,15.768850479,16.5507793105,14.7575325859,15.2804628471,15.49331961,15.9913364036,15.7016820757,15.7010308532,16.1857567862,15.9475143261,14.5553887059,14.9275106749,16.3010529521,16.0074033734,16.1431381345,14.9620862327,14.969596175,15.0140784762,16.1808355141,15.3649728189,14.9405374363,14.7374403764,15.1995233886,13.7582625496,15.2711773203,15.0014470411,14.4092036931,14.078886439,13.7215731069,14.2707191855,14.9729168471,13.5184739191,14.9661472974,13.7893807973,13.4695339419,14.0085476496,15.4367749455,14.2001104311,14.7188753085,15.4504644686,15.6282916373,15.7232823861,15.8461969042,15.694367769,14.1763691621,15.9586111915,15.7711814277,15.1454407118,14.5118969195,14.1120183587,14.081304944,14.3667611775,15.3065440015,15.5855795555,15.7739315418,14.7413791817,14.5724737752,14.7025414502,14.8848402508,14.5437564263,15.4306515019,13.8202856488,14.1178141251,14.7438017697,15.4115608594,15.1596006763,15.2755233192,14.6233731588,14.7118844877,14.1202766681,13.9221666836,13.9652826365,13.8576775757,14.1209226548,13.9891520622,13.7745880274,14.6968730497,14.9704140354,14.5013457862,14.7752989332,14.379992892,15.0956294882,14.1229137659,14.5456091108,14.869402596,14.465838848,14.0419010125,14.5547681525,14.500034664,15.7079146907,14.5870445306,15.6286940593,14.8166710115,16.0820989424,14.525435179,15.9420431259,15.34993926,14.8532271324,16.2188637554,13.5671222301,12.8309751243,13.1294264143,14.1152316783,13.814883678,13.2829363073,14.4393383811,13.6127034301,14.3388980306,14.6915037287,12.4626245661,13.4647199818,12.4736149244,13.4429246448,14.2500055871,12.5886468419,12.7598619456,13.9973796053,13.8266551878,13.4182557302,12.4445185076,13.308428403,13.8514483078,13.7970677231,14.0265564715,13.5519815523,13.1501966827,12.5204621368,13.8456653547,12.172273224,13.2957554473,14.7702731811,14.4978748284,14.010976692,12.8949877213,13.5077998967,14.6419020717,12.951730151,14.8159734305,13.4484115506,12.9580085826,14.0493037817,12.7660732228,14.529654665,13.0339220354,14.2551476126,12.7451690378,13.5855960136,13.0347433973,12.8109257053,12.8327700624,14.4183173754,12.7670243566,13.7008202446,14.5841573587,13.1496103886,12.9147168763,12.7599812897,13.4991193146,12.7094198455,12.4153362713,12.3435493194,12.6332795972,12.2263352179,13.8780800288,12.7150249688,12.9118283273,13.3308186922,13.1337053123,13.9192221458,13.635805897,14.8165650331,14.513877522,14.2453056253,13.0180220841,14.0518266658,14.0956950452,13.1425468955,12.9324046231,13.506370138,14.3897815995,13.9222053074,12.8854825595,14.7610908277,13.8188239042,12.8840587549,14.0179369755,13.1865563287,12.7924691765,14.3306577448,13.2164434996,13.9010245088,13.8940991933,13.6970932893,13.0441805247,14.1328115506,13.7937961061,14.3888534601,14.2116116237,14.2930277195,11.3550231791,12.712914712,11.7692423139,12.2580067332,12.6582425553,11.941807902,12.7037982746,12.6377191086,11.2685225642,12.1066619914,13.4344467617,12.3220058772,12.7408626612,11.824472373,13.2963174801,11.5070432797,12.3861032583,12.5554821368,12.7853344166,12.5958859424,12.3526713195,12.9273412294,12.4692335339,13.2978334299,12.5748886621,12.9406566125,13.3565893449,13.2002061381,12.4466824457,13.1394767168,14.6782475528,13.1590051585,13.1059018268,13.9312475805,14.8883894546,14.8915655496,13.8729440716,13.6897144832,14.5387871563,12.9082764244,10.6543409168,10.0252399342,11.2147167888,10.5211219409,11.5982891864,11.0837692837,10.7074868353,10.7874312039,10.9356673289,9.4949523373,13.3402901012,12.9860969443,14.375386469,13.0560106954,13.2109627264,14.2584174553,12.7661026141,12.7516999708,13.8173252675,12.8720762997,13.4059925338,13.5001276673,13.5861502635,11.9784453891,13.3647485112,12.9154262249,13.0908984773,12.4126348651,12.6611706817,12.8767086748,12.3391547985,12.1843275433,11.4552156254,11.5080987178,11.6046516896,12.8894790099,12.679764949,13.1327486412,12.5544530713,13.1166033507,11.5582255368,10.8478647818,10.9467185723,10.8166504418,12.0257765928,12.3090255483,11.1440795892,11.014510425,12.362346904,11.9919915021,12.1870038412,12.2669494135,11.0342766826,11.8713184743,12.2037333826,12.710322177,11.4294349507,11.468539038,12.4843858781,12.5744368746,12.8224942198,11.6620257528,11.9935042831,11.7957817334,12.3888858463,11.326674815,12.535759287,11.238686578,12.1787355112,12.4883734559,11.5278021247,12.7875699077,12.769911992,11.8707849162,11.9220500851,11.0314682246,12.5328784565,12.4124199029,12.1681093997,11.7256697306,11.0664929998,11.7040782301,12.2597782297,12.4002020208,11.9817914916,11.2658775183,10.7889317411,10.7950066485,11.8434782991,11.4690550572,13.308296667,12.2462055907,12.9353004914,12.4297404117,12.9136902887,12.7565954168,13.9180616921,13.9801485578,12.9489659336,12.8249988107,10.3980549079,10.3423886052,11.5702390388,10.7513864115,11.6223263115,11.4253448737,11.8230498909,10.9359738761,11.8982477665,11.9525846153,13.0064096718,13.1243371925,12.4989915832,12.2088299377,11.9662181048,11.7301270207,12.6050487724,12.935162377,12.6564849569,12.2280974687,12.0755531769,13.319847941,13.3572585032,12.6985596713,11.558158295,11.9639621208,11.9326190149,13.1831204616,12.8941156167,12.7091605751,12.9060499025,11.7810862635,11.7388072884,11.7488433181,12.4417072295,12.3152600222,12.9848937297,12.1850985151,13.1938421176,11.3158373345,11.7057333354,12.1946282196,11.7809143757,12.7575672926,12.3036939791,11.822962729,11.7400212231,11.0454379233,10.7611477835,12.4311083099,9.8117542139,10.5852409332,11.0616223209,9.9297721271,9.5425150338,9.6809059202,10.6879691277,11.37397643,9.3644484901,10.1305087402,12.6934693506,11.9112949493,11.1557239477,11.667040862,12.0055580204,11.4612319541,12.6515943679,12.6836568459,12.1134436027,13.1299002883,10.1352058678,10.7205947351,10.6457926908,10.0916598454,9.6048445652,9.6781310694,10.2505529748,9.4575439031,10.0851586863,9.8408691032,10.0628153747,10.1179626757,10.6278970999,11.401587761,11.3553747281,10.8566616672,10.9407576812,10.0322111929,11.0468396027,9.7646404105,10.7311318374,11.0525818781,9.5549051478,9.5429954221,10.2295297608,9.8816567907,9.7964121038,11.0045817071,9.8442904571,9.8077214528,11.8660397266,11.6994204457,11.9353021587,12.8610320025,12.1605106036,11.8325794546,11.1584977535,12.4516585161,12.0325228131,11.8895605256,11.8418009385,13.1614083466,11.620346933,13.1361676099,12.7802646442,12.6837718855,12.804655728,11.3774012442,13.368589986,12.861294274,12.0678146869,12.0150765423,11.2918197445,11.5031591865,11.1566101153,11.7050190005,12.3222372429,12.397756807,13.1439287727,11.7072989199,12.3055459072,10.4599231813,9.9871415671,11.9696108969,11.4297011342,11.3811333756,11.7649986637,11.3750687647,11.7167367915,11.7328902493,10.0751028792,10.3160941884,10.2216574035,10.7082251923,9.8763956055,10.7306280111,11.7899335111,10.80772818,10.5067642955,11.1550204115,10.17584852,10.6503433846,10.0488063177,10.8054724828,9.7695832014,9.0582664714,9.3743722383,9.759371684,9.8435135829,9.2668377167,11.8230703485,11.0034863278,13.1770676339,11.2653875626,11.8987146654,11.2232292029,11.4617894597,12.4075976896,13.6620492524,11.3007553338,11.3768206214,11.1558769794,11.5465812358,10.5922571054,10.3755025739,10.9319404532,10.1868580906,10.8063345619,11.1727512519,10.4247993903,10.81602579,10.1937252811,11.5039336436,10.6163720532,11.0667963394,12.4802291879,10.5910186563,11.7475456063,12.7275475637,11.5253530434,11.2581713201,10.1635547404,11.1785987954,10.239423348,10.6546946025,11.7522383864,10.7462904023,11.9724291022,10.112267305,11.716257824,10.4658561816,10.0246152085,11.8508483713,11.4449490587,10.2013007542,11.2044261907,9.9930875922,11.0274857246,11.9242930018,11.0531631067,12.2087758827,10.9433086445,11.8599068003,11.9210905544,11.3023580084,10.8738819301,12.1008158938,11.1431869993,11.8995062454,10.4855932601,11.6418052764,11.0886692415,10.4246117242,11.2641589628,11.3550982086,9.8340918395,11.4813912993,9.8627176279,11.5103823348,11.6135747181,8.6563102126,10.0255710342,9.6283046713,8.8507367605,9.5648328271,9.9203468317,8.417906198,9.4088812959,9.2807336361,8.9403367148,11.288907537,12.1530293873,11.6182709574,12.2981435447,11.8552747811,12.0130584073,12.3975502984,11.5325433149,11.6250441816,10.9705473498,9.7867497452,9.6192629058,11.514582171,10.5808217575,10.8609226261,10.6729543333,11.5238411622,10.1527436608,10.7922796279,11.1089678285,9.6007528767,9.3761623241,9.8241783976,9.5328647901,10.1028617208,8.6457411474,10.5957756749,10.4942304883,10.0140105797,10.529908436,7.9411656345,9.0409495073,9.3783861549,7.830326662,8.8143013828,7.8805507897,9.5261622442,9.2336165325,9.1963985698,8.3116156223,10.1864587565,11.0599068382,12.1163637967,11.3666812082,10.369119299,12.256557272,10.5291126134,10.4096140031,10.256574119,12.1416228633,10.1520014808,10.4622993803,10.2184698265,10.9232751909,10.3444776297,11.7631944975,11.7595971466,11.5820614998,10.9322215802,11.307395448,13.6873545106,12.8607554064,12.733061103,12.7592575552,14.0176613037,13.2203805792,13.2007754092,12.8595456696,12.0594642857,13.3703938761,12.9922621319,12.5534734706,13.2542439555,13.1339966854,11.6123406345,11.4660028203,11.6124037863,12.4984094393,11.8065907066,12.0757233249,9.6042968726,9.4259015215,11.142654131,9.572836963,10.151124606,9.4481020353,10.4268785288,10.7491396153,10.8828301666,10.8081711291,10.9011811029,11.0980909761,9.8178975288,9.8931377758,10.8120090189,10.3237927301,10.1467995807,9.8509106128,11.3465340199,10.0604382912,10.9861194964,11.7300124834,10.8272143408,11.4779756999,11.3608503108,12.6992767623,11.3776057018,11.4477153886,11.9780332872,12.7702289178,10.1475706788,8.973108688,10.3784626557,10.202436143,10.3385839697,8.8011282175,10.2940722531,9.5620984558,9.9000238801,9.3214660305,10.0250998073,10.6279003728,10.3477978527,10.9171478114,10.9116730791,12.2658006424,10.7890376841,11.5267329112,11.3221403675,10.1924446281,11.172272637,10.7520822813,11.7741672487,10.0577732858,11.1954890358,10.0679983268,10.1758179486,10.077144757,11.1245683587,11.639046651,10.6075801182,10.9878329999,12.2246877524,11.540050159,11.7525216902,10.9097516074,10.8173961988,12.2759896323,10.9957648228,11.738022693,10.7701837342,10.2725337257,10.4421441087,10.1738378337,9.1171643819,9.3647639504,9.7827134654,10.4080800418,9.6949582499,10.1868809722,10.8660108805,10.6675121304,9.6379644426,9.1648220865,9.1662640891,10.6904206773,9.1868218237,9.5275526114,8.8224893531,9.4496987535,11.8511253808,12.2284015487,12.3843562972,11.9680278021,11.2782142398,12.6049034474,12.3418468468,11.1962655869,11.0689983136,11.1336102568,10.2917422939,9.9413964594,10.8537222997,10.5487950965,10.9411632217,9.8621906233,11.2714136708,10.09020891,10.1321965897,10.2608659939,9.8407718179,9.2974865355,9.4267538982,9.7126673496,10.423137612,9.6141057024,9.2548549439,9.5647877518,9.0648549133,9.3461373866,9.2590912283,10.2474401954,9.6371699894,10.3944669464,10.8228955717,11.0039044962,11.3555225022,10.9102021384,10.8252256616,9.5461134301,10.694401042,10.9838123476,11.188981475,11.7882121362,10.4309013677,11.3891220271,10.935715754,10.6621485177,10.7274082967,10.6231469338,8.7044652344,8.8882408921,9.0139114508,10.072209834,9.7372654297,9.7468087983,10.0407519251,9.8043531648,9.4440224855,8.7487196688,9.6560088692,9.927454306,8.5914619242,9.7619700856,8.6585424324,8.6363795929,8.482467863,8.6052354586,9.56432389,8.9294463191,10.7429807213,12.1159738763,10.2922332186,11.1414572086,11.5518031144,12.0638944705,11.6778960037,10.2863078157,11.1288002848,10.2523626529,9.6652191253,8.6932426625,9.3851956045,8.6265639715,9.2854480758,8.1639866886,9.2771186906,7.5386454767,8.318155673,9.2250018969,10.7800397375,10.9130791357,10.9022317493,10.729544575,9.8427385469,12.2961853573,10.8593012818,10.6374658579,10.117656565,11.3897756506,9.3485870454,9.6953111137,10.0808272028,9.609577754,10.252356312,10.1705625961,10.472683133,10.4578159013,10.2817205288,10.1386024754,11.1985407659,10.6649232274,11.3852117388,11.2183698653,10.6377671808,11.2251302517,11.324520873,11.1972679815,10.7324216196,10.9971705733,8.681549655,9.2814061113,9.6113900673,9.0178082857,10.29361898,9.5448752561,9.4610181924,9.424368826,8.9767026468,10.0504307007,10.1668525204,10.120012615,9.5294987415,9.2309502422,10.0697288446,10.6542762956,9.6549057812,11.1918664098,10.0906111516,9.5512852965,9.2159299634,9.8391491296,9.776462489,8.6260993782,8.900394095,9.7474624858,9.3327588135,10.1893147899,9.9419016986,8.6331341952,6.8493801098,7.1654497235,7.9907085126,6.9220701966,8.2790319495,7.8797049477,7.6799218421,7.8919788052,6.6862132978,7.8974289915,9.6472213985,9.0789856127,7.8117781703,8.0430583977,8.8434441544,9.7608768372,9.2725677869,9.4290533155,9.4229597715,8.8817013087,7.0468131618,8.3444217921,8.2979523146,7.2339671313,8.7254183267,8.9671753694,7.3370371304,7.4633082827,7.2933348401,7.5999793509,8.4869227518,8.3558924217,7.6098810972,7.4028824937,8.4740954641,7.8984608904,8.5044814957,8.278194287,7.8513516803,8.7488828759,8.2984995087,9.0398077543,8.5809018056,8.7203272233,9.3744039686,9.0685251345,8.9954374239,8.2956585034,8.4226221848,8.8098277442,7.6474037259,8.8937938671,8.1144556821,7.5347388551,7.5327269868,7.6281708467,7.6261347387,8.3063364617,8.132782886,8.6215727623,8.5111397819,9.2646667357,10.0004462444,9.9740929616,9.3691938288,8.5497373766,9.8607295323,9.4474282335,9.1449002295,9.4716197822,10.305384358,10.2937682971,10.3935114822,9.9972076439,10.1592266555,10.8054720544,10.9549201098,11.1467365846,11.0741075383,9.7983786902,9.7163059837,8.1085676252,8.5638729603,8.7772983187,8.5791024368,9.5289330188,9.2419913127,8.3041603984,8.0934726025,8.575204609,10.7758380792,9.0948916875,8.9088406228,10.2370606629,10.2115535165,9.7837034113,9.7484824453,10.4854196362,9.8116101007,10.0815111268,7.5155337369,8.1943060383,9.1804194109,8.524031027,7.4210396742,7.935894433,8.067122573,9.4572886159,9.2910907618,8.7871962403,9.7411845801,9.5834570824,9.1257488108,10.3631708019,9.0780942676,9.9951147681,9.4157075879,9.533477023,9.3313224835,9.9374585427,6.2738420865,6.7272538623,6.5004746812,7.6516528867,6.3317544028,7.6988287534,7.2303190385,7.5848745247,7.2160545838,6.0591073556,7.8026931324,7.754341447,7.1853722842,6.3622536598,7.2236553883,8.2371851364,7.7926234446,6.9027114915,7.9316209873,7.998008405,10.7181170291,10.5281014484,10.5387946299,10.0211250525,9.4935937855,8.9361970072,9.2447030834,9.3888933139,9.0702627487,10.1118982237,9.0283944633,9.5996505405,10.4629468706,9.2671989693,10.8314255795,10.7545418509,9.3698025625,10.2592123311,9.5283537709,10.4297088492,12.0969236056,10.9798342567,12.1984447815,11.3431348578,12.4288615367,12.5938918472,12.4816267336,11.007026347,11.0456738968,12.3750213643,10.9839134662,10.8582303684,9.9806040238,10.1951091501,10.2223201267,10.1007872942,10.0398127416,10.4274285326,9.8552191966,9.5936144337,8.264066159,8.0564652838,8.8039693242,8.9736487467,9.027919579,8.8494042298,8.6004239251,8.7797448513,9.0391224005,9.1951831727,8.4699836725,7.0129508237,8.7451541602,7.532159039,8.7051252236,7.4641465066,8.9649902803,6.9597995827,8.5596755911,7.7913763004,8.9023125618,9.6636204663,10.4397091989,10.7491707543,9.8182572959,10.0947615313,10.6150322935,10.1171578615,10.1686385706,10.4283622682,8.2255002786,9.6195950845,8.6908214961,9.2613212723,8.2548333171,8.5058613063,8.6212845275,9.4453337251,9.3242820175,9.4096282318,10.3401501697,9.207197607,10.4100691682,10.0605336879,10.7483823666,10.983052113,9.5611331203,10.4577992823,9.3827845573,10.9447183273,9.2864386963,8.4905938287,9.7155952508,9.8507738211,8.7095356106,9.0822859183,8.8595836114,8.526563737,8.8514567824,9.3064834023,9.2194271067,8.414390983,8.7662212871,10.2470004631,10.0028740215,10.0073023668,10.0384388966,8.9215116762,9.414870391,9.5225419887,10.9348612115,9.4195636707,10.3562666286,10.9817854175,10.9669552786,10.2619699087,9.6602670409,10.3911050526,9.8428080863,9.2123980466,9.1294563023,8.9231368754,9.3969076351,10.2534049361,9.2733491238,10.1097135101,8.9738907524,9.715736485,10.4505847018,9.5617690135,9.3215683663,8.869046593,9.363368324,9.5767417075,9.3009398666,8.9988321942,10.0628555963,9.8351853991,9.4939010732,8.6563990998,9.3252024436,9.2632450951,8.9169947597,8.4372405639,8.6935562806,8.9206501693,9.9081789936,9.3433861133,9.4698255194,8.7854727403,8.3740867748,8.8906925244,8.6024405114,7.6162627842,9.3833654965,7.5166996654,8.3438253726,8.0681714152,7.8432544842,7.9814208064,8.1113001319,8.0102380437,8.001968334,7.7705577793,7.8624757941,8.5486984313,7.9031997323,6.8364397774,7.2888887012,7.941252147,7.8870640976,8.035464882,9.6295803736,9.3974557932,9.5004152558,9.088295961,8.3726289689,8.8091997265,9.0413664262,9.406275746,9.0241669367,9.0169800445,9.5568004751,10.6782375126,10.3717068008,10.7190223732,10.3744318556,8.8996054862,9.721761878,10.376757382,9.9717053117,10.6607742029,11.2849894429,9.4548121173,11.0886126057,11.0954528785,9.1981342169,10.2797481687,10.2942056352,10.7288320457,10.0322799131,9.4576225654,9.5656739629,8.7969686494,8.9187422091,9.6233349467,10.6058152278,8.6698671092,8.7557770687,10.2179602446,9.206668371,9.0736421995,9.2700980486,8.8211758141,8.4328870263,7.8116589159,8.8632014621,9.5585699484,9.1285561339,9.489912081,8.2835258905,7.6992232348,7.4270403717,7.6724181501,8.0286746608,7.3620472984,7.4896665357,7.4558611041,7.4856417658,8.0857942737,7.5521912425,8.1198627391,7.7155796005,8.3371196947,7.3517074256,9.2368468285,8.5934618802,8.3195125574,8.1980682906,9.5853150572,6.988445594,8.1459734228,7.0004990155,7.4489626357,7.4431273486,8.3170860457,8.5749953927,8.3277893828,7.7047901191,7.4692666066,7.1078081538,7.2758676049,8.4278987946,8.2787384563,7.9335393826,7.9216339787,7.6821400179,7.1752578177,7.4267317472,7.3828604323,10.6745545066,9.81042539,10.6270251309,8.9753138154,8.7983037753,10.3885699697,9.5391819446,9.913720134,9.7827135843,9.0300291284,7.8337176147,8.1051289725,8.5695261679,7.2459496089,8.3760257281,8.6460212737,8.4386187343,7.8509500512,7.7674197229,7.4903836925,9.7521472531,9.211543466,9.1276048002,8.3530783992,8.7107162934,9.1618761254,9.8579032626,8.8314803044,8.7269707123,9.0303912544,9.1816312131,8.5807996662,9.3778594112,9.1392686801,9.589818445,9.7837275132,8.8196076867,9.8963010613,8.683097325,8.760844744,9.1609247429,8.5597122141,8.0980433599,7.8093422069,7.7468601581,7.4725407055,8.6642730104,8.1076618115,7.3846318359,7.296324336,7.0189380859,6.7400437656,8.2875377981,8.7466506629,8.3971373419,8.3412597954,7.0314459387,7.0388224697,8.5100809605,6.8335592815,7.7024231882,8.3851330022,7.4065458753,8.2736743853,8.3890909152,8.6478621363,7.2412542191,7.159433843,8.3859329852,7.1743425538,8.3716518678,8.8596017006,10.0909945973,9.957726107,9.1543557414,9.7942757251,9.7738523298,9.3694901891,9.0567000533,9.5998274345,8.5614248721,7.9286059792,7.5271818231,8.3859606087,8.5847158842,8.1279024807,7.8433236064,8.7407421058,8.7959677797,7.4082361818,7.6368825768,8.126313286,8.1431357496,8.8627566704,8.0178513805,8.1405096638,9.0151348761,9.3705804668,9.1563663588,9.5269879399,5.6645294121,5.6627550033,7.5208894489,6.0575266937,6.4336220717,5.6503725577,7.331736549,5.7947010197,7.2248985493,6.1659409133,7.5568835694,7.8564041271,7.74263754,7.7430858601,7.3223115275,6.0818879415,5.8080254934,7.7799379924,6.2165035562,7.640793217,8.853638964,9.6329009173,8.5559526368,8.8568882754,8.205221729,9.3609342794,8.4495829998,9.3578709075,9.358632831,9.4865946318,8.4838714018,8.4460783408,9.4786576031,8.7717580092,8.6904106043,9.3242799105,8.3899877952,8.029713074,8.7998261917,9.1915926407,7.8288470781,9.2042293789,8.9659268525,9.7613062081,8.3744674522,8.0685418646,8.4796728857,8.2908043924,9.7209150089,8.0351165014,7.4523038262,7.5725331419,7.0640745553,6.5337756227,7.3917181237,8.257770799,8.162610495,7.1409592593,6.6049111495,6.7457760573,7.585539754,7.980026601,7.9258303982,7.5618302369,6.744082028,-7.1354959208,-7.7133910623,7.3594917645,-9.6951988711,7.5846476402,8.0987017243,7.6090732879,8.9467775717,6.6200453688,7.9587503327,-9.0421822076,-9.2381115146,7.536792392,-9.4096135184,8.13913724,7.9817532081,7.1686691651,9.4081474649,7.4533140189,6.9661341382,-9.001258193,-9.7237541987,8.4842859102,-7.3058062541,7.1686274968,8.563377436,8.7193793032,8.1725741778,10.1515378984,9.7571276511,-9.6803682845,-11.0831234602,10.0316639426,-10.4369458614,8.6234165458,6.7647975889,7.8309266062,7.4732893476,8.3129715675,6.6352836775,-7.3843894049,-9.4593631686,8.2917012177,-9.2462631167,8.3437405713,9.7323273593,9.3797405282,7.6576318736,9.3403343941,8.7004012579,-7.600016613,-9.0617482232,9.4464429478,-8.661199081,9.4134255211,10.2763961175,9.8058370913,7.8518272803,8.525347235,9.2382356902,-7.8017538799,-9.3440118423,9.9716935511,-9.3407113036,10.2474630376,7.0550737172,7.9645827313,9.0621687247,8.5335745912,7.4449602826,-8.1965635922,-9.5659600323,6.9362512662,-10.1153407769,8.7618749659,8.8385245675,7.7177627174,10.3531684621,7.5930369899,8.5839309983,-9.1245310547,-8.4952559979,7.4328090753,-9.2390858215,7.5402143962,10.097810333,8.1433790568,9.8397000473,8.3224805237,9.8200591188,8.2108839912,9.6731936569,9.6819802308,9.2404077207,8.5258461914,6.5350678362,7.7118469145,6.0258973418,6.6913621716,8.0009941362,7.2101036515,7.9619712295,7.5193565856,6.6825163298,7.141098412,8.1837997938,8.0334720803,8.4514684416,8.7783616477,7.5188095412,8.884133377,8.2691698192,7.7176093981,8.4974537522,8.5432998806,7.1227400397,8.9716689184,7.4964340814,8.6104439181,7.5326386282,8.3248645977,8.7693671694,7.4398594574,8.0442583665,7.20841079,8.3420209872,7.1924825148,8.5247026529,7.0691070574,8.4217986048,7.6118587405,7.2909574556,6.646562759,7.7654411362,8.1388680937,-9.9030410484,-10.7310063376,-10.6018068654,-8.9569866564,-10.2832196593,-8.7214696711,-10.6409549198,-9.8022415903,-9.2486873955,-10.1600301768,-10.1078808799,-8.8013851375,-9.7542722605,-8.6242194994,-9.4906254079,-9.6488533207,-10.5758997606,-10.0323388069,-8.6343463431,-9.9526368872,9.2799986853,9.9020532873,7.9494091692,9.1405779583,8.6254178847,8.9503730149,9.3216510465,8.3019002306,8.676373573,9.1493172257,-10.1480727734,-8.9703428267,-9.3686909253,-10.7284324936,-9.4029734651,-9.218336092,-9.1668928523,-10.2351539089,-9.2998660772,-9.0504284775
##end
biasActivation=0,1,1,1,1,1,1,1,1,1,1,1,1,1,1,1,1,1,1,1,1,1,1,1,1,1,1,1,1,1,1,1,1,1,1,1,1,1,1,1,1,1
[BASIC:ACTIVATION]
"org.encog.engine.network.activation.ActivationSigmoid"
"org.encog.engine.network.activation.ActivationSigmoid"
"org.encog.engine.network.activation.ActivationSigmoid"
"org.encog.engine.network.activation.ActivationSigmoid"
"org.encog.engine.network.activation.ActivationSigmoid"
"org.encog.engine.network.activation.ActivationSigmoid"
"org.encog.engine.network.activation.ActivationSigmoid"
"org.encog.engine.network.activation.ActivationSigmoid"
"org.encog.engine.network.activation.ActivationSigmoid"
"org.encog.engine.network.activation.ActivationSigmoid"
"org.encog.engine.network.activation.ActivationSigmoid"
"org.encog.engine.network.activation.ActivationSigmoid"
"org.encog.engine.network.activation.ActivationSigmoid"
"org.encog.engine.network.activation.ActivationSigmoid"
"org.encog.engine.network.activation.ActivationSigmoid"
"org.encog.engine.network.activation.ActivationSigmoid"
"org.encog.engine.network.activation.ActivationSigmoid"
"org.encog.engine.network.activation.ActivationSigmoid"
"org.encog.engine.network.activation.ActivationSigmoid"
"org.encog.engine.network.activation.ActivationSigmoid"
"org.encog.engine.network.activation.ActivationSigmoid"
"org.encog.engine.network.activation.ActivationSigmoid"
"org.encog.engine.network.activation.ActivationSigmoid"
"org.encog.engine.network.activation.ActivationSigmoid"
"org.encog.engine.network.activation.ActivationSigmoid"
"org.encog.engine.network.activation.ActivationSigmoid"
"org.encog.engine.network.activation.ActivationSigmoid"
"org.encog.engine.network.activation.ActivationSigmoid"
"org.encog.engine.network.activation.ActivationSigmoid"
"org.encog.engine.network.activation.ActivationSigmoid"
"org.encog.engine.network.activation.ActivationSigmoid"
"org.encog.engine.network.activation.ActivationSigmoid"
"org.encog.engine.network.activation.ActivationSigmoid"
"org.encog.engine.network.activation.ActivationSigmoid"
"org.encog.engine.network.activation.ActivationSigmoid"
"org.encog.engine.network.activation.ActivationSigmoid"
"org.encog.engine.network.activation.ActivationSigmoid"
"org.encog.engine.network.activation.ActivationSigmoid"
"org.encog.engine.network.activation.ActivationSigmoid"
"org.encog.engine.network.activation.ActivationSigmoid"
"org.encog.engine.network.activation.ActivationSigmoid"
"org.encog.engine.network.activation.ActivationLinear"
