encog,BasicNetwork,java,3.4.0,1,1513067106090
[BASIC]
[BASIC:PARAMS]
[BASIC:NETWORK]
beginTraining=0
connectionLimit=0
contextTargetOffset=0,0,0,0,0,0,0,0,0,0,0,0
contextTargetSize=0,0,0,0,0,0,0,0,0,0,0,0
endTraining=11
hasContext=f
inputCount=9
layerCounts=9,10,10,10,10,10,10,10,10,10,10,10
layerFeedCounts=9,9,9,9,9,9,9,9,9,9,9,9
layerContextCount=0,0,0,0,0,0,0,0,0,0,0,0
layerIndex=0,9,19,29,39,49,59,69,79,89,99,109
output=0.0153939056,0.0002901899,0.0337882308,0.0000715132,0.0456328019,0.0017016644,0.0100649923,0.0001717229,0.0090440756,0.547139846,0.0009552374,0.9994090893,0.364982985,0.9999809439,0.9985479006,0.9990995146,0.8658625944,0.9992923625,1,0.9984452188,0.4329881272,0.9916035602,0.981377831,0.9961555548,0.9975372843,0.9955687048,0.2209761452,0.9949492485,1,0.9962746654,0.0002000141,0.9970777162,0.9997176461,0.9967143705,0.9980230719,0.9984971856,0.0200472449,0.0016274899,1,0.9787625557,0.9977678869,0.9964596548,0.9987885179,0.9955628671,0.9986205984,0.9997179573,0.9172471545,0.9970558804,1,0.3019216317,0.9629639239,0.9982541626,0.9610266961,0.9596447459,0.693252792,0.9993368795,0.9958425437,0.9122005669,1,0.58188009,0.9749094119,0.475177483,0.4921129753,0.9825878758,0.3621986843,0.5973920689,0.9815360785,0.0801634029,1,0.1837299434,0.4099151429,0.6480453947,0.9140545758,0.6176800409,0.9086871779,0.1234153884,0.0078413958,0.9610405832,1,0.0407795568,0.5711522439,0.9834689471,0.1026123161,0.9539112065,0.4734251849,0.3784307268,0.6719343803,0.3719144326,1,0.7339869074,0.7147403203,0.7971077479,0.5947707896,0.2565100602,0.6329673344,0.1218402581,0.5118818401,0.9102350009,1,0.3423867855,0.8299825117,0.3148705794,0.0153772329,0.5170887183,0.3483681544,0.8597037295,0.4285592597,0.9683152534,1,0,1,2,0,1,1,0,2,2,1
outputCount=9
weightIndex=0,90,180,270,360,450,540,630,720,810,900,990
weights=0.2610111556,-0.6822439119,-1.0255841281,-0.6058246694,-0.7702021974,0.2226080829,-1.3922617815,0.1498339443,-0.1243975676,-1.1208493794,-0.5913548772,-0.694831563,-1.9110286656,-0.0464524121,-1.5475198227,-1.5028331069,-0.4504768317,-0.0885205935,-1.4223284716,-0.8974324368,-0.1796826743,0.2713271279,0.1101964463,0.3355323299,0.1302644164,-0.7338371766,-0.3228204052,-0.999975198,-0.8095151451,-0.8879902757,-1.5959868305,-0.5065799917,-0.7635437457,-0.3005219125,-1.0967984629,-1.9402656651,-1.3999779119,-1.0185330736,-1.5369892042,-0.9483132136,0.6013316037,0.6968187614,-0.8946866469,0.7174979171,-0.1496505014,-0.5984239097,-0.8451247564,-0.8106864007,0.075186415,-0.5194402339,-1.4476474511,-0.550586903,-1.24659399,-0.1654548281,-0.9465709506,-1.5069936899,-0.9692185344,-0.3208605311,-0.5283572038,-0.0500997018,-0.1858297341,0.1890248533,0.0630029266,-1.4791770204,-1.4707091893,-0.4946863856,-0.2731375643,-0.4018948667,-1.293148204,-0.132413288,-1.4973551621,-0.720992931,-1.9218436743,-0.9757011237,-0.3454308379,-0.2621382787,-1.1470287683,-1.7659219512,-0.6692945173,-1.6216383454,-0.9830114272,-0.867722412,-1.0725372084,-0.931891145,-1.1357605297,0.2965667836,-0.7893893848,-0.9203747962,0.5095107442,-0.8298094804,-0.729895354,0.1538878809,0.2665169344,0.6964037905,0.1629498642,-0.1618716659,-0.160487179,-0.5670668454,0.3748190212,-0.1851564538,-1.4824279014,-0.1992554294,0.2723401879,-1.3914917544,-0.3550278689,-0.8610139157,-0.8446355477,0.2071539638,-0.855302997,-1.4320148136,0.2891419016,0.1267289712,1.1825052242,1.0228337516,0.3315697348,0.995780086,1.2744925969,0.2540361738,0.6967589438,1.5714839096,0.5414124682,-0.8586617247,-0.7375448723,0.5363310613,0.5379135504,-0.3844468382,-0.1176098843,0.7824346236,0.0572686148,-0.7827082571,0.6357185552,1.4623459848,1.6875780916,0.9972406146,1.4731885435,1.7580430319,1.2758015158,0.8205302448,1.0726176624,1.2082117758,1.3531438334,0.4504281386,1.0400609949,0.1489708797,1.3375290341,-0.2062345016,0.8018031488,-0.1128380298,0.7376346091,1.1758118721,0.0566319399,0.1462672907,1.5838796054,-0.1422280739,1.4297336597,1.7348348632,0.9887744125,0.5208975822,0.0493909815,1.15735873,-0.3932717276,-0.2393256526,0.9260560823,0.1285623337,0.2263542055,0.5155513934,0.0171525896,-0.8661648896,0.4712692206,0.2823687535,0.9062994339,0.5677690586,0.2721878458,1.1567377268,1.1429331233,-0.1855321371,0.948820432,1.6981092316,1.5251883219,0.9062374274,-0.1521829396,0.5862262624,1.227720341,1.4886643374,0.1058958916,1.6907341015,0.991860882,0.1751154338,0.2112061107,1.1168224001,-0.9229832673,-0.9489719742,0.8983668376,0.9153967459,-0.7704157507,0.7392045712,-0.5365879804,0.7046224273,0.777621599,-0.6102836052,1.4733441719,-0.1559369444,1.073424351,0.0116029683,-0.2973464018,0.9970233882,0.8990905131,0.460389411,-0.0489339672,0.6162319736,0.867005532,1.0407920905,-0.1577600319,0.974014265,1.3736977722,1.0933167858,-0.0779185957,-0.0118937047,0.3240845082,-0.0986464708,-0.0963364436,0.1123776982,0.001390352,0.9950300767,0.4956780079,1.0598698619,1.5971660704,1.4840663844,0.3565548099,1.4801722674,0.9848493075,-0.0004920863,0.3804488767,0.8952610413,0.7743238105,0.7907922341,0.4322028876,-0.027426896,0.6026273621,1.7555062966,0.7860690226,0.4636797046,1.6688410183,0.4514088711,1.595964473,0.1486582468,0.7116772118,0.1167369237,0.1838517288,0.06381098,0.1524595772,-0.5131110494,0.5497216423,-1.188916619,0.4156157891,0.2703952852,-0.3354752955,-0.2276460126,-0.9782352141,-1.1142942538,1.3037796975,-0.1611013656,0.486184626,-0.0618015245,-0.0997446665,1.4865077905,0.6893861513,0.1146599361,0.5714161926,1.4855535883,0.6191701951,0.0803850565,0.0348678523,-0.4028165301,0.6942764005,0.8834053113,1.3715642692,0.34098705,0.8325284645,1.1828174314,-0.4641058299,-1.4355885652,-0.4712854069,-0.6522320041,-1.1127674546,-1.371611962,-0.3874029802,-0.5522764439,-1.4128889024,-0.7290835339,1.1306610411,0.1984179425,0.6245780367,0.0370291983,0.7918470739,1.5202771957,0.5152385392,0.2068776487,-0.06540969,0.9223406978,0.2573894822,0.5396432623,0.8842675068,0.504948576,0.0620470532,1.5368929601,1.4912378811,0.0588885723,1.4998932047,1.3593763907,0.4251617133,0.5906437281,0.9689355218,0.4979779907,0.7207430002,0.8910570153,0.8112805197,0.8060046319,-0.3742030466,0.4619397334,0.919855373,0.3452215785,1.0075482037,0.6507659469,0.3420087042,0.8747030099,0.1394491711,1.3427122176,0.5182400785,0.2237917827,-0.3845109508,1.4718177558,0.078589753,1.2937533958,0.546595875,1.1047937517,1.5597722845,-0.081782385,0.9363250866,-0.0290999024,-0.53486858,-0.7412292214,-0.366730418,0.1201741302,-0.1904657353,-0.0923738195,-1.0124187356,-0.8950657208,-0.4865405204,0.2191797215,-0.9291845808,0.28668375,0.2101331001,-1.1409582245,-1.2762844529,-1.0360348129,-0.2334490862,-0.8803523401,-0.8073178921,-0.7144414208,0.1913345706,-0.1213279821,-0.2744452518,-0.4309247838,1.3281129331,1.0328246211,0.8976509365,0.8352483744,0.9729842368,-0.0292275019,0.7284460578,0.083336961,0.043149041,1.4168471754,0.3772561922,-0.0109812263,1.2324564855,0.512318272,1.2018751678,1.2050882645,0.7384752978,0.6123444264,0.9597525969,0.2313809973,0.804745383,-0.0735508699,0.9315453045,1.2451814762,0.095621689,0.6674780511,-0.030673287,0.585624017,1.7502574201,-0.1603422486,1.770263829,0.4498534673,0.1517082937,0.4573779631,1.1238202276,0.9239959753,0.0912357183,0.4353337546,0.3200915968,0.7563148197,0.3723660336,1.2996410632,0.4288026558,0.9628688925,1.3861670976,0.0100061707,0.4617722905,0.46557006,1.3205348228,-0.0114069128,0.3435751006,0.3168829737,1.7228124826,1.662438524,0.5941286231,0.2211603189,1.4186962596,1.0778777769,-0.1192782741,1.7656922008,0.3432505748,0.8117454396,0.6441623254,0.9038005822,1.7621421347,1.0857216629,0.6542335289,0.0140710739,-0.2359411181,-0.3627408987,0.6373285849,0.4565235554,0.436527111,-0.0295316462,1.1402798664,0.4034862914,0.1594748067,1.57914996,1.5874515685,0.9384128899,1.2689321498,1.2975757165,0.0771265594,-0.1039726342,-0.1340765394,-0.1988387113,0.1777261996,-0.12765112,0.4033875273,-0.2571606683,-0.742118057,0.3476682313,-0.7064874789,0.8137708219,0.4725203148,-0.6935625247,0.4044002206,0.2860478285,-0.1433751522,-0.4563590007,1.0584227152,-0.0239761499,0.1329953239,0.690620555,0.8698771839,1.1782882999,0.1455154668,1.7942667618,0.8406214374,1.2327055645,0.4384634636,0.2398627032,1.2685644059,1.1299570481,1.3583076379,1.0152613678,0.4570195178,0.4676529218,0.9140045007,0.7139013921,1.0308353977,0.078074594,0.7763330777,0.7898703025,-0.7090212164,-0.525747747,0.7856392637,0.5283130912,0.5108012231,0.6035540201,0.1174860813,1.1835833109,0.0584975413,0.2606540555,-0.4696434602,0.8596264791,0.3668992049,-0.3732842796,0.5045235686,1.0628667875,0.205427174,-0.0231545772,-0.6880626281,0.820136512,-0.077682938,-0.3781778147,1.057808129,0.0047584991,1.1641232999,0.6710074817,1.4985714178,1.5405200273,1.2431792331,1.4951330629,0.1011616224,1.5656029073,0.2369467144,1.5567497734,-0.3687473583,-0.2725575785,1.3500115647,0.3368699103,0.5875189689,1.4905305986,0.8418888999,0.8024744774,0.4150594631,0.2956916698,0.4049832635,0.0066281188,0.2798226253,-0.6193962435,-0.1922047125,1.0301747235,-0.0147414978,0.6695605277,-0.3931200371,0.0770827049,0.8099741234,-0.6420576358,-0.2844487872,0.3356089902,-0.1114749431,-0.006459647,-0.723854614,1.0132992006,-0.1845642644,1.1825004996,1.0391681563,0.60463714,0.5295519076,-0.3405972666,0.5923484919,1.2776580864,0.8671298899,1.0488695629,0.3415903795,-0.9390255979,0.0685605134,0.2188927677,-0.9773256611,-0.6217942886,0.0160279648,-0.6350796344,0.717915352,0.4600254868,0.6384757113,0.3608048308,0.9867901929,0.1961397942,-0.2215370382,0.1466174,0.1007537527,-0.5807769965,-0.7833023936,-0.367009919,0.1808600155,0.037780583,0.2604760078,1.4588795581,0.557992778,0.6551351158,0.015486381,0.7458228316,1.1828043955,0.3975545202,0.6242115562,0.5567355296,-0.6651902929,0.0783545067,-0.7867902027,-0.5946178715,-0.0855534971,-0.2574399767,-0.0049167606,0.4943273815,0.8331235448,-0.1490208784,-0.7311068731,-0.1475143237,0.2666621138,-0.3226629008,-0.863981347,-0.8650178791,0.5647815607,0.6103744906,0.0262743859,0.506881453,-0.3299169566,0.355623032,0.2956715026,1.2437890592,0.1363562502,-0.3959526469,1.2333847574,1.1375346596,0.2151153936,-0.1971814375,-1.0302547973,-0.942914204,-0.0717097073,-0.9244346028,0.3916111387,-0.425243979,0.1461992688,-0.1704817567,-0.0957397585,-1.0873464709,-0.5983904568,0.375124718,-0.1939977356,0.5737688902,0.5420348419,0.0564101151,-0.2831871444,-0.5406128311,-0.0080540976,-0.6861227292,0.4606670783,-1.0204218682,-0.9132354628,0.0038259408,-0.7724138218,0.491245552,0.2384808799,0.4224089939,-0.8098705885,-0.9048684677,0.6327179345,-0.1398515595,0.6405969157,-0.7478002918,0.7955104595,0.9302810886,-0.4758423207,-0.4538114935,-0.1215614906,-0.1471444091,1.0735901945,-0.0749390741,0.6013027654,-0.500026087,0.9718500097,0.3447581102,-0.4574659177,0.6388648658,-0.0648543078,0.094309206,0.8457119731,0.6214960537,-0.1446961324,0.5485046178,0.0512011949,-0.4404014872,0.1181050465,-0.3560408692,-0.0871997601,-0.4916174792,0.7083710392,0.0818528212,0.4195129198,1.3327493483,-0.4121368832,1.0302193653,-0.2912265271,0.4178956618,0.5000987454,-0.3802541033,-0.4480091281,0.42102727,-0.7200465645,-0.1463119233,-1.3780669023,-0.5248283769,-0.3071418029,0.3782240302,-0.655116604,-0.9641233173,-1.7659284168,0.1844829277,-0.8928214881,0.029600679,-0.7735122031,-1.6487227957,-0.9426540183,0.0435156398,0.6268588329,0.3365230771,1.2500328174,1.5463180303,0.8520161461,1.0424229586,0.0546423613,0.1667265191,-0.2323347747,0.2471314552,0.558900105,-0.8074711471,-1.2982270692,-0.7150856461,0.4593595255,-1.0690777065,-0.3514069175,-0.7866990851,-0.3908111776,-0.1707908586,-0.5438248686,-0.4928683777,-0.9209786718,-0.2854264589,-0.5465973363,0.5632217922,0.7621544008,0.3476342995,0.7012475011,0.8164675423,-0.0365119267,1.2852983109,0.875473169,0.0149511277,1.035612794,0.7892842219,0.4188234665,-0.0353947108,0.8528510769,0.9128084866,-0.4470992538,-1.1656251475,0.5598990265,-0.165193789,-1.1909472008,-0.2191195912,0.6305443471,0.1015991106,-0.6014704125,-0.4924606479,0.0086481925,0.9240036107,0.9872869151,0.2332341801,-0.3700244781,-0.5166575177,-0.4836036007,0.303135343,1.0607019458,0.7977427466,-0.2963468214,-0.2771634818,-0.6470729977,0.5556340131,0.2712891985,-0.0750904853,0.0635066727,-0.2372636772,0.4699562995,0.1584111386,0.8039001154,0.2117566006,-0.7277203723,0.2841317153,0.7048499985,0.140103299,0.7395954152,-0.3217861684,-0.4630865117,-0.5998995442,0.6321607934,0.8941035252,-0.7376315942,0.6240608105,-0.1464539798,0.4937255277,0.7935565005,0.6782251746,-0.5321832226,-0.4036955239,0.1598763795,0.1370247576,0.2537561505,0.0375558908,-0.3714757822,-0.2949561471,0.5162479586,-0.6215762754,0.2943199137,-0.6945466146,0.9827455084,0.0694438576,0.4207950823,0.6727498412,-0.9935682143,-0.2134846982,-0.4387185862,0.6894563523,0.2244525956,0.9304767915,-0.2380846025,0.4886820577,-0.0056665203,0.4273675228,0.966693182,-1.3718225816,0.5114108542,0.5380421777,0.0697132977,-0.1700647464,-0.39712443,0.6607049389,0.5875983845,0.8567019639,-0.1549753816,0.6268508776,0.7431230379,0.4025713074,0.7447277574,-0.9130411535,0.3509773223,-0.6876061079,-0.06885888,0.7233342064,-0.221149867,-0.6714470934,0.5133696903,-0.9113648571,0.5372057803,0.622121395,0.1511742633,-0.6682131781,0.5191241459,-0.468036652,-0.1447960306,-0.2174269876,0.2751326869,0.2528088849,-0.5435345246,-0.3855483628,1.0501750674,0.909369888,-0.6877438611,0.6941536534,-0.694731982,0.383322406,-0.1569265572,0.8141123378,-0.181211194,-0.1762977786,-0.2978406859,-0.4308891392,-0.8926315068,0.4848144533,0.4205033881,0.4055035933,-0.033278905,-0.1245794132,-1.244645087,-0.3133958426,0.790597738,0.400658185,-0.6046764495,-0.9237276749,0.1894280451,-0.3986710338,-0.3956987941,-0.3074012249,0.8149728176,-0.6273880482,-0.2616402384,1.1495604605,0.3613733044,0.6141592904,0.5137045664,-0.0151153571,0.5914567164,0.1682166567,0.3803875773,0.1194762929,-0.7868379715,-1.0310034077,0.8919264462,-0.7833104664,-0.0439359672,-0.0025318426,-0.0390103943,0.2440817706,-1.3099892827,0.7727574605,-0.3620853904,-0.6331715085,-0.0006977586,0.222165499,-0.2184628772,0.3221030343,0.1242717438,0.3799949891,0.4758033331,0.4048335504,0.1668809641,0.285730784,-0.3037421233,0.6287186316,-0.6261328998,0.1725947855,-0.0489921478,0.2397639897,-0.7337342405,0.985786018,0.8087595945,0.4347618467,-1.1248401394,0.8875889207,0.7675311709,-0.8324368428,-0.3324137439,-0.9253787638,-0.0499824624,-0.3288240024,0.152075664,0.2760711679,0.4786694425,0.5549199776,1.1894625493,-0.0893396719,-0.2588587599,-0.8288507934,-0.5837021147,0.5599543929,-0.519038537,0.4050900544,-0.2055369607,0.2058236813,-0.5664136225,0.6159020295,-0.0521637021,0.4016431748,-0.295916548,-0.8811777067,0.9093168049,0.3890339184,-0.7607346263,0.798810429,1.3515374023,0.1916737627,-0.3758319262,0.236380026,0.7207344995,-0.5121734565,-0.5190582709,-0.8407906883,0.1505528719,-0.9706144416,0.8347212894,-0.4647858215,-0.8326546566,0.6302059369,-0.7121908127,0.0459874658,0.0443584247,0.2862189231,-0.8929518396,-0.4221985367,1.3383550925,-0.1593112829,0.9396308452,0.4019826033,0.7905260964,1.3553458694
biasActivation=0,1,1,1,1,1,1,1,1,1,1,1
[BASIC:ACTIVATION]
"org.encog.engine.network.activation.ActivationSigmoid"
"org.encog.engine.network.activation.ActivationSigmoid"
"org.encog.engine.network.activation.ActivationSigmoid"
"org.encog.engine.network.activation.ActivationSigmoid"
"org.encog.engine.network.activation.ActivationSigmoid"
"org.encog.engine.network.activation.ActivationSigmoid"
"org.encog.engine.network.activation.ActivationSigmoid"
"org.encog.engine.network.activation.ActivationSigmoid"
"org.encog.engine.network.activation.ActivationSigmoid"
"org.encog.engine.network.activation.ActivationSigmoid"
"org.encog.engine.network.activation.ActivationSigmoid"
"org.encog.engine.network.activation.ActivationLinear"
